{
  "weights1": [
    [
      -0.1445849264849492,
      1.383391812454653,
      -0.23354668930573794,
      -0.025125234450012184,
      -1.0303802269690154,
      -0.3162626582400795,
      2.1239184502782433,
      0.22552611858804564,
      -0.24862417559159183,
      -0.9011735157764769,
      0.1048251997821059,
      -0.8452295657938785,
      0.8557847563055935,
      -0.33375159765346113,
      2.2433913222165636,
      0.12287339996104456
    ],
    [
      0.16686057595809906,
      0.09606175538914044,
      -0.08271070500265004,
      0.009319933048907908,
      -1.4439450106962919,
      -0.005647915130376066,
      2.487006942402118,
      0.14566561294841968,
      0.4119556211999732,
      0.2170832265766575,
      -0.08987814904234882,
      0.20351591634360766,
      0.20028438965756942,
      -0.014415708617029527,
      -0.9245062421997903,
      0.06687521157475174
    ],
    [
      -0.009045556349434446,
      0.7160027142221421,
      -0.16005194599159694,
      0.4784924740148556,
      0.6741684945557509,
      -0.43037723934189065,
      -0.3423983634441123,
      0.14233698994006147,
      1.1464315819559765,
      -0.3388769424988277,
      -0.4131461153940949,
      -0.43570412829978267,
      0.5507156728360337,
      -0.2403086453884897,
      -0.5823913402214903,
      0.37323485916802407
    ],
    [
      -0.002153149217480304,
      0.8133383230085959,
      -0.20408303562747593,
      0.4442269855226892,
      0.008398109673987715,
      -0.22963342611521761,
      1.2018661422207595,
      0.16537031168419652,
      0.18423689245423577,
      -0.05471215446269079,
      0.0748532426948284,
      -0.10845134387873326,
      0.4632112821255141,
      -0.23012163035363004,
      -0.47623509260256885,
      0.3533240905481558
    ],
    [
      0.018038632986893184,
      -0.11566386086196678,
      -0.12790716130835447,
      0.30274121887246436,
      -0.679241861067728,
      -0.12957948824313636,
      1.0556409904716655,
      0.07146693841095532,
      -0.7378026600509487,
      -0.021537470059732763,
      0.22913716902513143,
      0.10901871794708799,
      0.02826400442299653,
      -0.04599941685109368,
      0.12380617562866957,
      0.16654287501551268
    ],
    [
      -0.0611460836623592,
      -0.01543280963925084,
      0.007821401453762917,
      -0.09734179703503364,
      0.3018831104608884,
      0.05693129308290054,
      0.752807995829484,
      -0.0056963643278804856,
      0.08498723196652824,
      -0.0902922089286216,
      0.019832912532056754,
      0.05012122265260164,
      -0.052121101613629525,
      -0.028386085842507954,
      0.9246943324938148,
      -0.05904445264976217
    ],
    [
      -0.1698225588614563,
      0.8737553987714763,
      -0.008571223862750221,
      -0.04918159412030665,
      0.3340123363320387,
      -0.12424091481330704,
      0.5101650065724623,
      0.03924992288235213,
      -0.016661074115862852,
      -0.14566978297038014,
      0.23877551562484545,
      0.28209372280589035,
      0.5160160484036272,
      0.023304735059760693,
      -0.0432380603984566,
      -0.03991258250920531
    ]
  ],
  "bias1": [
    [
      -0.08316642049370832,
      -0.5106638552037673,
      -0.009911187630707538,
      -0.24613081218128674,
      -0.5701229952478413,
      -0.08583635306897529,
      1.750019593167567,
      -0.07903020126281363,
      -0.6614037968452587,
      -0.4699183082261858,
      0.034578561196455325,
      -0.5992548038345233,
      -0.12837801005918695,
      -0.08835946027899509,
      1.2722542027107693,
      -0.08795329665068131
    ]
  ],
  "weights2": [
    [
      0.04892691176211146
    ],
    [
      -1.9183585289884149
    ],
    [
      0.4394124953632167
    ],
    [
      -0.8555603554333154
    ],
    [
      -1.565626669304326
    ],
    [
      0.6276166809075907
    ],
    [
      3.816518710071257
    ],
    [
      -0.33185482999917026
    ],
    [
      1.225913547759492
    ],
    [
      1.04130277354974
    ],
    [
      -0.2943206649628727
    ],
    [
      1.1201391692675913
    ],
    [
      -1.358016080933107
    ],
    [
      0.5274289597417069
    ],
    [
      -2.436352551133111
    ],
    [
      -0.731238369558914
    ]
  ],
  "bias2": [
    [
      -0.27651815434359434
    ]
  ]
}